{"learner":{"attributes":{"best_iteration":"59","best_score":"0.2962454748226375"},"feature_names":["packet_size","duration","protocol","flag","src_port","dst_port"],"feature_types":["float","float","int","int","int","int"],"gradient_booster":{"model":{"gbtree_model_param":{"num_parallel_tree":"1","num_trees":"60"},"iteration_indptr":[0,1,2,3,4,5,6,7,8,9,10,11,12,13,14,15,16,17,18,19,20,21,22,23,24,25,26,27,28,29,30,31,32,33,34,35,36,37,38,39,40,41,42,43,44,45,46,47,48,49,50,51,52,53,54,55,56,57,58,59,60],"tree_info":[0,0,0,0,0,0,0,0,0,0,0,0,0,0,0,0,0,0,0,0,0,0,0,0,0,0,0,0,0,0,0,0,0,0,0,0,0,0,0,0,0,0,0,0,0,0,0,0,0,0,0,0,0,0,0,0,0,0,0,0],"trees":[{"base_weights":[-1.2087804E-3,1.2842017E-1,-3.3171764E-1,1.0016905E-3,1.2411628E-2,1.1198792E-3,-1.4515619E-2],"categories":[],"categories_nodes":[],"categories_segments":[],"categories_sizes":[],"default_left":[0,0,0,0,0,0,0],"id":0,"left_children":[1,3,5,-1,-1,-1,-1],"loss_changes":[2.8908491E1,1.19160385E1,1.1695557E1,0E0,0E0,0E0,0E0],"parents":[2147483647,0,0,1,1,2,2],"right_children":[2,4,6,-1,-1,-1,-1],"split_conditions":[2E0,4.6324E4,1.572E4,1.0016905E-3,1.2411628E-2,1.1198792E-3,-1.4515619E-2],"split_indices":[2,4,5,0,0,0,0],"split_type":[0,0,0,0,0,0,0],"sum_hessian":[6.6126715E2,4.715084E2,1.8975879E2,3.6063058E2,1.1087779E2,5.1994797E1,1.3776399E2],"tree_param":{"num_deleted":"0","num_feature":"6","num_nodes":"7","size_leaf_vector":"1"}},{"base_weights":[2.1708107E-2,-1.0123898E0,2.6095583E0,-3.419156E-2,4.45468E-2,3.131782E-2,8.4687926E-2],"categories":[],"categories_nodes":[],"categories_segments":[],"categories_sizes":[],"default_left":[0,0,0,0,0,0,0],"id":1,"left_children":[1,3,5,-1,-1,-1,-1],"loss_changes":[1.7814651E3,1.5349768E2,4.9934082E1,0E0,0E0,0E0,0E0],"parents":[2147483647,0,0,1,1,2,2],"right_children":[2,4,6,-1,-1,-1,-1],"split_conditions":[4.1540527E2,8.272289E-1,4.4288974E2,-3.419156E-2,4.45468E-2,3.131782E-2,8.4687926E-2],"split_indices":[0,1,0,0,0,0,0],"split_type":[0,0,0,0,0,0,0],"sum_hessian":[6.6052875E2,4.7225977E2,1.8826898E2,4.5114536E2,2.111442E1,2.5118547E1,1.6315044E2],"tree_param":{"num_deleted":"0","num_feature":"6","num_nodes":"7","size_leaf_vector":"1"}},{"base_weights":[3.245646E-3,-9.8051864E-1,2.5081391E0,-3.3699878E-2,6.176703E-3,3.3194363E-2,8.047831E-2],"categories":[],"categories_nodes":[],"categories_segments":[],"categories_sizes":[],"default_left":[0,0,0,0,0,0,0],"id":2,"left_children":[1,3,5,-1,-1,-1,-1],"loss_changes":[1.672573E3,8.462186E1,3.334619E1,0E0,0E0,0E0,0E0],"parents":[2147483647,0,0,1,1,2,2],"right_children":[2,4,6,-1,-1,-1,-1],"split_conditions":[4.20385E2,3.829138E2,4.492358E2,-3.3699878E-2,6.176703E-3,3.3194363E-2,8.047831E-2],"split_indices":[0,0,0,0,0,0,0],"split_type":[0,0,0,0,0,0,0],"sum_hessian":[6.735062E2,4.8388525E2,1.8962096E2,4.3349643E2,5.038883E1,2.3884655E1,1.657363E2],"tree_param":{"num_deleted":"0","num_feature":"6","num_nodes":"7","size_leaf_vector":"1"}},{"base_weights":[-1.0777361E-2,-1.0228294E0,2.3167138E0,-3.468709E-2,-5.157285E-3,3.620719E-2,7.598248E-2],"categories":[],"categories_nodes":[],"categories_segments":[],"categories_sizes":[],"default_left":[0,0,0,0,0,0,0],"id":3,"left_children":[1,3,5,-1,-1,-1,-1],"loss_changes":[1.5987504E3,5.0797424E1,3.5659058E1,0E0,0E0,0E0,0E0],"parents":[2147483647,0,0,1,1,2,2],"right_children":[2,4,6,-1,-1,-1,-1],"split_conditions":[4.0820993E2,3.6675735E2,4.4636755E2,-3.468709E-2,-5.157285E-3,3.620719E-2,7.598248E-2],"split_indices":[0,0,0,0,0,0,0],"split_type":[0,0,0,0,0,0,0],"sum_hessian":[6.7580536E2,4.7238205E2,2.034233E2,4.0570734E2,6.667472E1,3.6801186E1,1.666221E2],"tree_param":{"num_deleted":"0","num_feature":"6","num_nodes":"7","size_leaf_vector":"1"}},{"base_weights":[-0E0,-9.78666E-1,2.1459265E0,-3.423359E-2,1.343654E-2,2.6795454E-2,7.179485E-2],"categories":[],"categories_nodes":[],"categories_segments":[],"categories_sizes":[],"default_left":[0,0,0,0,0,0,0],"id":4,"left_children":[1,3,5,-1,-1,-1,-1],"loss_changes":[1.4071311E3,1.092728E2,5.4088135E1,0E0,0E0,0E0,0E0],"parents":[2147483647,0,0,1,1,2,2],"right_children":[2,4,6,-1,-1,-1,-1],"split_conditions":[4.0676416E2,7.310498E-1,4.4288974E2,-3.423359E-2,1.343654E-2,2.6795454E-2,7.179485E-2],"split_indices":[0,1,0,0,0,0,0],"split_type":[0,0,0,0,0,0,0],"sum_hessian":[6.667796E2,4.591217E2,2.0765791E2,4.138008E2,4.5320892E1,3.708132E1,1.7057658E2],"tree_param":{"num_deleted":"0","num_feature":"6","num_nodes":"7","size_leaf_vector":"1"}},{"base_weights":[-1.2320862E-3,-9.563541E-1,2.1302297E0,-3.2252952E-2,3.4580557E-3,3.5290144E-2,6.972128E-2],"categories":[],"categories_nodes":[],"categories_segments":[],"categories_sizes":[],"default_left":[0,0,0,0,0,0,0],"id":5,"left_children":[1,3,5,-1,-1,-1,-1],"loss_changes":[1.3537792E3,6.0785034E1,2.5520752E1,0E0,0E0,0E0,0E0],"parents":[2147483647,0,0,1,1,2,2],"right_children":[2,4,6,-1,-1,-1,-1],"split_conditions":[4.1540527E2,3.829138E2,4.533427E2,-3.2252952E-2,3.4580557E-3,3.5290144E-2,6.972128E-2],"split_indices":[0,0,0,0,0,0,0],"split_type":[0,0,0,0,0,0,0],"sum_hessian":[6.621362E2,4.5865213E2,2.0348409E2,4.145739E2,4.4078236E1,3.8492672E1,1.6499141E2],"tree_param":{"num_deleted":"0","num_feature":"6","num_nodes":"7","size_leaf_vector":"1"}},{"base_weights":[-1.2648505E-2,-9.397174E-1,1.956631E0,-3.2836977E-2,9.620235E-3,2.5530335E-2,6.6255555E-2],"categories":[],"categories_nodes":[],"categories_segments":[],"categories_sizes":[],"default_left":[0,0,0,0,0,0,0],"id":6,"left_children":[1,3,5,-1,-1,-1,-1],"loss_changes":[1.2002389E3,8.9769165E1,4.8633545E1,0E0,0E0,0E0,0E0],"parents":[2147483647,0,0,1,1,2,2],"right_children":[2,4,6,-1,-1,-1,-1],"split_conditions":[4.0676416E2,7.241924E-1,4.4636755E2,-3.2836977E-2,9.620235E-3,2.5530335E-2,6.6255555E-2],"split_indices":[0,1,0,0,0,0,0],"split_type":[0,0,0,0,0,0,0],"sum_hessian":[6.5452795E2,4.464268E2,2.0810114E2,3.9922855E2,4.719825E1,4.171165E1,1.6638948E2],"tree_param":{"num_deleted":"0","num_feature":"6","num_nodes":"7","size_leaf_vector":"1"}},{"base_weights":[2.9714643E-3,-9.1300243E-1,1.9847016E0,-3.310593E-2,1.7431395E-2,3.0565895E-2,6.513287E-2],"categories":[],"categories_nodes":[],"categories_segments":[],"categories_sizes":[],"default_left":[0,0,0,0,0,0,0],"id":7,"left_children":[1,3,5,-1,-1,-1,-1],"loss_changes":[1.2203547E3,1.3278247E2,2.7510986E1,0E0,0E0,0E0,0E0],"parents":[2147483647,0,0,1,1,2,2],"right_children":[2,4,6,-1,-1,-1,-1],"split_conditions":[4.1540527E2,7.241924E-1,4.492358E2,-3.310593E-2,1.7431395E-2,3.0565895E-2,6.513287E-2],"split_indices":[0,1,0,0,0,0,0],"split_type":[0,0,0,0,0,0,0],"sum_hessian":[6.671154E2,4.5628546E2,2.1082996E2,4.0632968E2,4.995577E1,3.7933315E1,1.7289665E2],"tree_param":{"num_deleted":"0","num_feature":"6","num_nodes":"7","size_leaf_vector":"1"}},{"base_weights":[2.827848E-2,-8.855574E-1,1.9807107E0,-3.1301096E-2,-1.0768994E-3,3.0251158E-2,6.1953634E-2],"categories":[],"categories_nodes":[],"categories_segments":[],"categories_sizes":[],"default_left":[0,0,0,0,0,0,0],"id":8,"left_children":[1,3,5,-1,-1,-1,-1],"loss_changes":[1.1714269E3,5.75343E1,6.8931885E0,0E0,0E0,0E0,0E0],"parents":[2147483647,0,0,1,1,2,2],"right_children":[2,4,6,-1,-1,-1,-1],"split_conditions":[4.1540527E2,3.6835492E2,4.370836E2,-3.1301096E-2,-1.0768994E-3,3.0251158E-2,6.1953634E-2],"split_indices":[0,0,0,0,0,0,0],"split_type":[0,0,0,0,0,0,0],"sum_hessian":[6.513611E2,4.43738E2,2.0762306E2,3.7186032E2,7.187767E1,2.054519E1,1.8707787E2],"tree_param":{"num_deleted":"0","num_feature":"6","num_nodes":"7","size_leaf_vector":"1"}},{"base_weights":[2.2664525E-2,-9.499093E-1,1.7221816E0,-3.2563623E-2,-1.4572715E-2,2.434636E-2,6.0395792E-2],"categories":[],"categories_nodes":[],"categories_segments":[],"categories_sizes":[],"default_left":[0,0,0,0,0,0,0],"id":9,"left_children":[1,3,5,-1,-1,-1,-1],"loss_changes":[1.080574E3,2.1879639E1,5.4245605E1,0E0,0E0,0E0,0E0],"parents":[2147483647,0,0,1,1,2,2],"right_children":[2,4,6,-1,-1,-1,-1],"split_conditions":[3.934445E2,3.4079282E2,4.4636755E2,-3.2563623E-2,-1.4572715E-2,2.434636E-2,6.0395792E-2],"split_indices":[0,0,0,0,0,0,0],"split_type":[0,0,0,0,0,0,0],"sum_hessian":[6.488281E2,4.124836E2,2.3634453E2,3.1384607E2,9.863751E1,6.0736675E1,1.7560785E2],"tree_param":{"num_deleted":"0","num_feature":"6","num_nodes":"7","size_leaf_vector":"1"}},{"base_weights":[-3.075464E-3,-8.8625026E-1,1.7025361E0,-2.947163E-2,4.079634E-2,1.8303119E-2,5.738912E-2],"categories":[],"categories_nodes":[],"categories_segments":[],"categories_sizes":[],"default_left":[0,0,0,0,0,0,0],"id":10,"left_children":[1,3,5,-1,-1,-1,-1],"loss_changes":[9.71846E2,9.402402E1,4.3125183E1,0E0,0E0,0E0,0E0],"parents":[2147483647,0,0,1,1,2,2],"right_children":[2,4,6,-1,-1,-1,-1],"split_conditions":[4.0676416E2,8.661244E-1,4.4288974E2,-2.947163E-2,4.079634E-2,1.8303119E-2,5.738912E-2],"split_indices":[0,1,0,0,0,0,0],"split_type":[0,0,0,0,0,0,0],"sum_hessian":[6.422452E2,4.2454626E2,2.1769894E2,4.0905386E2,1.5492404E1,3.795667E1,1.7974228E2],"tree_param":{"num_deleted":"0","num_feature":"6","num_nodes":"7","size_leaf_vector":"1"}},{"base_weights":[-1.4980104E-2,7.633082E-2,-3.411247E-1,6.40829E-3,-8.328304E-3,-1.2506312E-2,-0E0],"categories":[],"categories_nodes":[],"categories_segments":[],"categories_sizes":[],"default_left":[0,0,0,0,0,0,0],"id":11,"left_children":[1,3,5,-1,-1,-1,-1],"loss_changes":[1.9801405E1,2.4336258E1,3.0032845E0,0E0,0E0,0E0,0E0],"parents":[2147483647,0,0,1,1,2,2],"right_children":[2,4,6,-1,-1,-1,-1],"split_conditions":[3E0,2E0,4.797E4,6.40829E-3,-8.328304E-3,-1.2506312E-2,-0E0],"split_indices":[3,2,4,0,0,0,0],"split_type":[0,0,0,0,0,0,0],"sum_hessian":[6.433786E2,4.9905695E2,1.4432164E2,3.6423074E2,1.348262E2,1.13257286E2,3.1064354E1],"tree_param":{"num_deleted":"0","num_feature":"6","num_nodes":"7","size_leaf_vector":"1"}},{"base_weights":[1.01130335E-2,1.23897545E-1,-2.7890065E-1,7.5426325E-3,-9.110916E-3,-0E0,-1.1055182E-2],"categories":[],"categories_nodes":[],"categories_segments":[],"categories_sizes":[],"default_left":[0,0,0,0,0,0,0],"id":12,"left_children":[1,3,5,-1,-1,-1,-1],"loss_changes":[2.0948269E1,2.5604017E1,3.7376308E0,0E0,0E0,0E0,0E0],"parents":[2147483647,0,0,1,1,2,2],"right_children":[2,4,6,-1,-1,-1,-1],"split_conditions":[2E0,3E0,1.6119E4,7.5426325E-3,-9.110916E-3,-0E0,-1.1055182E-2],"split_indices":[2,3,5,0,0,0,0],"split_type":[0,0,0,0,0,0,0],"sum_hessian":[6.423358E2,4.666706E2,1.7566522E2,3.637031E2,1.029675E2,4.8373257E1,1.2729196E2],"tree_param":{"num_deleted":"0","num_feature":"6","num_nodes":"7","size_leaf_vector":"1"}},{"base_weights":[-0E0,-8.6605847E-1,1.6706159E0,-2.9739054E-2,2.8486818E-3,2.1218618E-2,5.460193E-2],"categories":[],"categories_nodes":[],"categories_segments":[],"categories_sizes":[],"default_left":[0,0,0,0,0,0,0],"id":13,"left_children":[1,3,5,-1,-1,-1,-1],"loss_changes":[9.254572E2,5.282968E1,2.376355E1,0E0,0E0,0E0,0E0],"parents":[2147483647,0,0,1,1,2,2],"right_children":[2,4,6,-1,-1,-1,-1],"split_conditions":[4.0676416E2,3.7437253E2,4.370836E2,-2.9739054E-2,2.8486818E-3,2.1218618E-2,5.460193E-2],"split_indices":[0,0,0,0,0,0,0],"split_type":[0,0,0,0,0,0,0],"sum_hessian":[6.3652405E2,4.2046957E2,2.1605449E2,3.737757E2,4.6693882E1,3.2353725E1,1.8370076E2],"tree_param":{"num_deleted":"0","num_feature":"6","num_nodes":"7","size_leaf_vector":"1"}},{"base_weights":[1.9615984E-2,-5.6649387E-1,1.5354981E0,-2.1733271E-2,-0E0,3.1844243E-2,5.426267E-2],"categories":[],"categories_nodes":[],"categories_segments":[],"categories_sizes":[],"default_left":[0,0,0,0,0,0,0],"id":14,"left_children":[1,3,5,-1,-1,-1,-1],"loss_changes":[5.6925946E2,4.2387604E1,1.3604401E1,0E0,0E0,0E0,0E0],"parents":[2147483647,0,0,1,1,2,2],"right_children":[2,4,6,-1,-1,-1,-1],"split_conditions":[7.241924E-1,6.0960865E-1,8.33667E-1,-2.1733271E-2,-0E0,3.1844243E-2,5.426267E-2],"split_indices":[1,1,1,0,0,0,0],"split_type":[0,0,0,0,0,0,0],"sum_hessian":[6.3457697E2,4.5758627E2,1.769907E2,3.5979462E2,9.779166E1,7.096866E1,1.0602205E2],"tree_param":{"num_deleted":"0","num_feature":"6","num_nodes":"7","size_leaf_vector":"1"}},{"base_weights":[2.7654838E-2,-8.389976E-1,1.594901E0,-2.8502144E-2,-3.1223989E-3,2.4406314E-2,5.409816E-2],"categories":[],"categories_nodes":[],"categories_segments":[],"categories_sizes":[],"default_left":[0,0,0,0,0,0,0],"id":15,"left_children":[1,3,5,-1,-1,-1,-1],"loss_changes":[8.648268E2,3.1040009E1,2.8812317E1,0E0,0E0,0E0,0E0],"parents":[2147483647,0,0,1,1,2,2],"right_children":[2,4,6,-1,-1,-1,-1],"split_conditions":[4.0080826E2,3.6541507E2,4.533427E2,-2.8502144E-2,-3.1223989E-3,2.4406314E-2,5.409816E-2],"split_indices":[0,0,0,0,0,0,0],"split_type":[0,0,0,0,0,0,0],"sum_hessian":[6.316344E2,4.0650134E2,2.2513304E2,3.5025726E2,5.6244053E1,5.148388E1,1.7364917E2],"tree_param":{"num_deleted":"0","num_feature":"6","num_nodes":"7","size_leaf_vector":"1"}},{"base_weights":[2.218794E-2,-8.7313604E-1,1.4797988E0,-2.8779542E-2,2.9879797E-2,1.3156147E-2,5.137344E-2],"categories":[],"categories_nodes":[],"categories_segments":[],"categories_sizes":[],"default_left":[0,0,0,0,0,0,0],"id":16,"left_children":[1,3,5,-1,-1,-1,-1],"loss_changes":[8.094978E2,6.3511658E1,5.149115E1,0E0,0E0,0E0,0E0],"parents":[2147483647,0,0,1,1,2,2],"right_children":[2,4,6,-1,-1,-1,-1],"split_conditions":[3.934445E2,8.33667E-1,5.317377E-1,-2.8779542E-2,2.9879797E-2,1.3156147E-2,5.137344E-2],"split_indices":[0,1,1,0,0,0,0],"split_type":[0,0,0,0,0,0,0],"sum_hessian":[6.1537885E2,3.8086557E2,2.3451329E2,3.6603204E2,1.4833525E1,4.545199E1,1.8906131E2],"tree_param":{"num_deleted":"0","num_feature":"6","num_nodes":"7","size_leaf_vector":"1"}},{"base_weights":[1.6378557E-2,-8.262548E-1,1.5052351E0,-3.108241E-2,-8.201194E-3,1.6171094E-2,5.120877E-2],"categories":[],"categories_nodes":[],"categories_segments":[],"categories_sizes":[],"default_left":[0,0,0,0,0,0,0],"id":17,"left_children":[1,3,5,-1,-1,-1,-1],"loss_changes":[7.7184564E2,4.221518E1,3.7095093E1,0E0,0E0,0E0,0E0],"parents":[2147483647,0,0,1,1,2,2],"right_children":[2,4,6,-1,-1,-1,-1],"split_conditions":[4.0676416E2,3.4079282E2,4.4636755E2,-3.108241E-2,-8.201194E-3,1.6171094E-2,5.120877E-2],"split_indices":[0,0,0,0,0,0,0],"split_type":[0,0,0,0,0,0,0],"sum_hessian":[6.10167E2,3.893546E2,2.208124E2,2.7835138E2,1.1100321E2,4.1119755E1,1.7969264E2],"tree_param":{"num_deleted":"0","num_feature":"6","num_nodes":"7","size_leaf_vector":"1"}},{"base_weights":[3.242294E-2,-7.5223815E-1,1.5403262E0,-2.6987642E-2,2.863922E-3,2.3576846E-2,4.928552E-2],"categories":[],"categories_nodes":[],"categories_segments":[],"categories_sizes":[],"default_left":[0,0,0,0,0,0,0],"id":18,"left_children":[1,3,5,-1,-1,-1,-1],"loss_changes":[7.3479175E2,5.2590088E1,9.031952E0,0E0,0E0,0E0,0E0],"parents":[2147483647,0,0,1,1,2,2],"right_children":[2,4,6,-1,-1,-1,-1],"split_conditions":[4.1540527E2,3.7315982E2,4.4075934E2,-2.6987642E-2,2.863922E-3,2.3576846E-2,4.928552E-2],"split_indices":[0,0,0,0,0,0,0],"split_type":[0,0,0,0,0,0,0],"sum_hessian":[6.157337E2,4.0477737E2,2.1095633E2,3.4674255E2,5.8034843E1,2.9645658E1,1.8131067E2],"tree_param":{"num_deleted":"0","num_feature":"6","num_nodes":"7","size_leaf_vector":"1"}},{"base_weights":[-8.637074E-3,-7.701726E-1,1.4415568E0,-2.667964E-2,3.2327887E-2,1.3384942E-2,4.878257E-2],"categories":[],"categories_nodes":[],"categories_segments":[],"categories_sizes":[],"default_left":[0,0,0,0,0,0,0],"id":19,"left_children":[1,3,5,-1,-1,-1,-1],"loss_changes":[6.681355E2,8.9244705E1,3.257782E1,0E0,0E0,0E0,0E0],"parents":[2147483647,0,0,1,1,2,2],"right_children":[2,4,6,-1,-1,-1,-1],"split_conditions":[4.0676416E2,8.121549E-1,5.267351E-1,-2.667964E-2,3.2327887E-2,1.3384942E-2,4.878257E-2],"split_indices":[0,1,1,0,0,0,0],"split_type":[0,0,0,0,0,0,0],"sum_hessian":[6.021953E2,3.9636856E2,2.0582675E2,3.7434937E2,2.2019184E1,3.495349E1,1.7087326E2],"tree_param":{"num_deleted":"0","num_feature":"6","num_nodes":"7","size_leaf_vector":"1"}},{"base_weights":[1.1497945E-2,-8.7966937E-1,1.2771195E0,-3.0675333E-2,-1.3610421E-2,1.8730838E-2,4.825273E-2],"categories":[],"categories_nodes":[],"categories_segments":[],"categories_sizes":[],"default_left":[0,0,0,0,0,0,0],"id":20,"left_children":[1,3,5,-1,-1,-1,-1],"loss_changes":[6.8170795E2,1.762085E1,4.767102E1,0E0,0E0,0E0,0E0],"parents":[2147483647,0,0,1,1,2,2],"right_children":[2,4,6,-1,-1,-1,-1],"split_conditions":[3.829138E2,3.3187534E2,4.533427E2,-3.0675333E-2,-1.3610421E-2,1.8730838E-2,4.825273E-2],"split_indices":[0,0,0,0,0,0,0],"split_type":[0,0,0,0,0,0,0],"sum_hessian":[5.997181E2,3.5135016E2,2.4836797E2,2.5750757E2,9.3842575E1,8.7592804E1,1.6077516E2],"tree_param":{"num_deleted":"0","num_feature":"6","num_nodes":"7","size_leaf_vector":"1"}},{"base_weights":[-0E0,-7.5433105E-1,1.4381984E0,-2.7137388E-2,-9.7652175E-4,2.5827698E-2,4.8014786E-2],"categories":[],"categories_nodes":[],"categories_segments":[],"categories_sizes":[],"default_left":[0,0,0,0,0,0,0],"id":21,"left_children":[1,3,5,-1,-1,-1,-1],"loss_changes":[6.5396857E2,4.1106552E1,1.1713959E1,0E0,0E0,0E0,0E0],"parents":[2147483647,0,0,1,1,2,2],"right_children":[2,4,6,-1,-1,-1,-1],"split_conditions":[4.1540527E2,3.6835492E2,4.664954E2,-2.7137388E-2,-9.7652175E-4,2.5827698E-2,4.8014786E-2],"split_indices":[0,0,0,0,0,0,0],"split_type":[0,0,0,0,0,0,0],"sum_hessian":[5.998647E2,3.9487497E2,2.0498973E2,3.241262E2,7.074879E1,5.0455208E1,1.5453452E2],"tree_param":{"num_deleted":"0","num_feature":"6","num_nodes":"7","size_leaf_vector":"1"}},{"base_weights":[8.727326E-3,-7.060921E-1,1.4205282E0,-2.6611656E-2,3.6976524E-4,2.6106888E-2,4.6847392E-2],"categories":[],"categories_nodes":[],"categories_segments":[],"categories_sizes":[],"default_left":[0,0,0,0,0,0,0],"id":22,"left_children":[1,3,5,-1,-1,-1,-1],"loss_changes":[5.9779626E2,5.2654068E1,7.909149E0,0E0,0E0,0E0,0E0],"parents":[2147483647,0,0,1,1,2,2],"right_children":[2,4,6,-1,-1,-1,-1],"split_conditions":[4.178759E2,3.6675735E2,4.5998154E2,-2.6611656E-2,3.6976524E-4,2.6106888E-2,4.6847392E-2],"split_indices":[0,0,0,0,0,0,0],"split_type":[0,0,0,0,0,0,0],"sum_hessian":[5.869532E2,3.8938425E2,1.9756894E2,3.1288553E2,7.649871E1,4.6127083E1,1.5144185E2],"tree_param":{"num_deleted":"0","num_feature":"6","num_nodes":"7","size_leaf_vector":"1"}},{"base_weights":[-1.3093056E-2,-8.1147456E-1,1.2291062E0,-3.0087758E-2,-1.3388625E-2,1.4994299E-2,4.466098E-2],"categories":[],"categories_nodes":[],"categories_segments":[],"categories_sizes":[],"default_left":[0,0,0,0,0,0,0],"id":23,"left_children":[1,3,5,-1,-1,-1,-1],"loss_changes":[5.969376E2,2.1926895E1,3.8997498E1,0E0,0E0,0E0,0E0],"parents":[2147483647,0,0,1,1,2,2],"right_children":[2,4,6,-1,-1,-1,-1],"split_conditions":[3.934445E2,3.2194348E2,4.492358E2,-3.0087758E-2,-1.3388625E-2,1.4994299E-2,4.466098E-2],"split_indices":[0,0,0,0,0,0,0],"split_type":[0,0,0,0,0,0,0],"sum_hessian":[5.987348E2,3.6588083E2,2.3285397E2,2.341549E2,1.317259E2,6.468479E1,1.6816917E2],"tree_param":{"num_deleted":"0","num_feature":"6","num_nodes":"7","size_leaf_vector":"1"}},{"base_weights":[5.791863E-2,-7.627636E-1,1.2485409E0,-2.6203224E-2,1.0961502E-2,1.5142593E-2,4.5980755E-2],"categories":[],"categories_nodes":[],"categories_segments":[],"categories_sizes":[],"default_left":[0,0,0,0,0,0,0],"id":24,"left_children":[1,3,5,-1,-1,-1,-1],"loss_changes":[5.704913E2,4.4621582E1,4.4843994E1,0E0,0E0,0E0,0E0],"parents":[2147483647,0,0,1,1,2,2],"right_children":[2,4,6,-1,-1,-1,-1],"split_conditions":[3.8913034E2,7.4310684E-1,6.0548323E-1,-2.6203224E-2,1.0961502E-2,1.5142593E-2,4.5980755E-2],"split_indices":[0,1,1,0,0,0,0],"split_type":[0,0,0,0,0,0,0],"sum_hessian":[5.7890466E2,3.4212247E2,2.3678217E2,3.135827E2,2.8539772E1,6.893377E1,1.678484E2],"tree_param":{"num_deleted":"0","num_feature":"6","num_nodes":"7","size_leaf_vector":"1"}},{"base_weights":[4.4178558E-3,-7.7685785E-1,1.2326305E0,-2.8398506E-2,1.6391415E-2,1.2677407E-2,4.43303E-2],"categories":[],"categories_nodes":[],"categories_segments":[],"categories_sizes":[],"default_left":[0,0,0,0,0,0,0],"id":25,"left_children":[1,3,5,-1,-1,-1,-1],"loss_changes":[5.5595886E2,8.1029434E1,3.97883E1,0E0,0E0,0E0,0E0],"parents":[2147483647,0,0,1,1,2,2],"right_children":[2,4,6,-1,-1,-1,-1],"split_conditions":[4.0080826E2,7.3431545E-1,5.820581E-1,-2.8398506E-2,1.6391415E-2,1.2677407E-2,4.43303E-2],"split_indices":[0,1,1,0,0,0,0],"split_type":[0,0,0,0,0,0,0],"sum_hessian":[5.744359E2,3.5055298E2,2.2388292E2,3.12538E2,3.8014996E1,5.5157894E1,1.6872502E2],"tree_param":{"num_deleted":"0","num_feature":"6","num_nodes":"7","size_leaf_vector":"1"}},{"base_weights":[-1.7499777E-2,-7.1529514E-1,1.3186781E0,-2.7438337E-2,-3.5552364E-3,1.7314041E-2,4.3136906E-2],"categories":[],"categories_nodes":[],"categories_segments":[],"categories_sizes":[],"default_left":[0,0,0,0,0,0,0],"id":26,"left_children":[1,3,5,-1,-1,-1,-1],"loss_changes":[5.208278E2,4.1581085E1,1.1205353E1,0E0,0E0,0E0,0E0],"parents":[2147483647,0,0,1,1,2,2],"right_children":[2,4,6,-1,-1,-1,-1],"split_conditions":[4.1540527E2,3.50819E2,4.4636755E2,-2.7438337E-2,-3.5552364E-3,1.7314041E-2,4.3136906E-2],"split_indices":[0,0,0,0,0,0,0],"split_type":[0,0,0,0,0,0,0],"sum_hessian":[5.558721E2,3.667628E2,1.8910925E2,2.716277E2,9.513511E1,3.0133827E1,1.5897543E2],"tree_param":{"num_deleted":"0","num_feature":"6","num_nodes":"7","size_leaf_vector":"1"}},{"base_weights":[5.349946E-3,-4.6913537E-1,1.2174898E0,-1.9009251E-2,-4.8570553E-4,2.4923055E-2,4.6196576E-2],"categories":[],"categories_nodes":[],"categories_segments":[],"categories_sizes":[],"default_left":[0,0,0,0,0,0,0],"id":27,"left_children":[1,3,5,-1,-1,-1,-1],"loss_changes":[3.2710577E2,2.8909477E1,1.2704636E1,0E0,0E0,0E0,0E0],"parents":[2147483647,0,0,1,1,2,2],"right_children":[2,4,6,-1,-1,-1,-1],"split_conditions":[7.241924E-1,5.8819926E-1,8.661244E-1,-1.9009251E-2,-4.8570553E-4,2.4923055E-2,4.6196576E-2],"split_indices":[1,1,1,0,0,0,0],"split_type":[0,0,0,0,0,0,0],"sum_hessian":[5.6215E2,4.0369995E2,1.584501E2,2.9231857E2,1.1138136E2,7.8111206E1,8.033889E1],"tree_param":{"num_deleted":"0","num_feature":"6","num_nodes":"7","size_leaf_vector":"1"}},{"base_weights":[-0E0,-6.9912016E-1,1.275016E0,-2.682841E-2,2.0601412E-2,2.0425525E-2,4.313552E-2],"categories":[],"categories_nodes":[],"categories_segments":[],"categories_sizes":[],"default_left":[0,0,0,0,0,0,0],"id":28,"left_children":[1,3,5,-1,-1,-1,-1],"loss_changes":[5.068164E2,1.0128412E2,1.3250885E1,0E0,0E0,0E0,0E0],"parents":[2147483647,0,0,1,1,2,2],"right_children":[2,4,6,-1,-1,-1,-1],"split_conditions":[4.1540527E2,7.4310684E-1,4.5998154E2,-2.682841E-2,2.0601412E-2,2.0425525E-2,4.313552E-2],"split_indices":[0,1,0,0,0,0,0],"split_type":[0,0,0,0,0,0,0],"sum_hessian":[5.654059E2,3.6641275E2,1.9899315E2,3.230691E2,4.3343666E1,4.7675526E1,1.5131763E2],"tree_param":{"num_deleted":"0","num_feature":"6","num_nodes":"7","size_leaf_vector":"1"}},{"base_weights":[4.600652E-3,-6.9456905E-1,1.2203499E0,-2.5043108E-2,-0E0,2.2505978E-2,4.237736E-2],"categories":[],"categories_nodes":[],"categories_segments":[],"categories_sizes":[],"default_left":[0,0,0,0,0,0,0],"id":29,"left_children":[1,3,5,-1,-1,-1,-1],"loss_changes":[4.6660345E2,3.2280045E1,1.1722107E1,0E0,0E0,0E0,0E0],"parents":[2147483647,0,0,1,1,2,2],"right_children":[2,4,6,-1,-1,-1,-1],"split_conditions":[4.0676416E2,3.6541507E2,4.6894144E2,-2.5043108E-2,-0E0,2.2505978E-2,4.237736E-2],"split_indices":[0,0,0,0,0,0,0],"split_type":[0,0,0,0,0,0,0],"sum_hessian":[5.437041E2,3.4468832E2,1.9901576E2,2.8433713E2,6.0351192E1,6.3621265E1,1.353945E2],"tree_param":{"num_deleted":"0","num_feature":"6","num_nodes":"7","size_leaf_vector":"1"}},{"base_weights":[-2.1936748E-2,-7.487091E-1,1.0940301E0,-2.5273297E-2,-5.3797606E-3,1.6814608E-2,4.176178E-2],"categories":[],"categories_nodes":[],"categories_segments":[],"categories_sizes":[],"default_left":[0,0,0,0,0,0,0],"id":30,"left_children":[1,3,5,-1,-1,-1,-1],"loss_changes":[4.4268195E2,1.5379211E1,2.8647675E1,0E0,0E0,0E0,0E0],"parents":[2147483647,0,0,1,1,2,2],"right_children":[2,4,6,-1,-1,-1,-1],"split_conditions":[3.934445E2,3.6245294E2,4.664954E2,-2.5273297E-2,-5.3797606E-3,1.6814608E-2,4.176178E-2],"split_indices":[0,0,0,0,0,0,0],"split_type":[0,0,0,0,0,0,0],"sum_hessian":[5.426424E2,3.3010938E2,2.1253304E2,2.7960757E2,5.050181E1,8.064009E1,1.3189294E2],"tree_param":{"num_deleted":"0","num_feature":"6","num_nodes":"7","size_leaf_vector":"1"}},{"base_weights":[2.4223996E-2,-6.1205375E-1,1.2204632E0,-2.4398038E-2,-1.5975777E-3,1.673375E-2,4.023162E-2],"categories":[],"categories_nodes":[],"categories_segments":[],"categories_sizes":[],"default_left":[0,0,0,0,0,0,0],"id":31,"left_children":[1,3,5,-1,-1,-1,-1],"loss_changes":[4.1501624E2,3.7966843E1,9.877106E0,0E0,0E0,0E0,0E0],"parents":[2147483647,0,0,1,1,2,2],"right_children":[2,4,6,-1,-1,-1,-1],"split_conditions":[4.1540527E2,3.50819E2,4.492358E2,-2.4398038E-2,-1.5975777E-3,1.673375E-2,4.023162E-2],"split_indices":[0,0,0,0,0,0,0],"split_type":[0,0,0,0,0,0,0],"sum_hessian":[5.396944E2,3.5185046E2,1.8784392E2,2.5539682E2,9.645365E1,3.3206013E1,1.546379E2],"tree_param":{"num_deleted":"0","num_feature":"6","num_nodes":"7","size_leaf_vector":"1"}},{"base_weights":[-4.3964772E-3,-5.074756E-1,1.117606E0,-1.9345036E-2,-2.12495E-3,2.2376828E-2,4.3308266E-2],"categories":[],"categories_nodes":[],"categories_segments":[],"categories_sizes":[],"default_left":[0,0,0,0,0,0,0],"id":32,"left_children":[1,3,5,-1,-1,-1,-1],"loss_changes":[2.9716367E2,2.0440529E1,1.3149109E1,0E0,0E0,0E0,0E0],"parents":[2147483647,0,0,1,1,2,2],"right_children":[2,4,6,-1,-1,-1,-1],"split_conditions":[6.9992703E-1,5.8543026E-1,8.520655E-1,-1.9345036E-2,-2.12495E-3,2.2376828E-2,4.3308266E-2],"split_indices":[1,1,1,0,0,0,0],"split_type":[0,0,0,0,0,0,0],"sum_hessian":[5.246125E2,3.6419437E2,1.6041812E2,2.7283295E2,9.136142E1,8.089347E1,7.952466E1],"tree_param":{"num_deleted":"0","num_feature":"6","num_nodes":"7","size_leaf_vector":"1"}},{"base_weights":[-1.1332744E-2,5.186893E-2,-2.4214461E-1,2.33605E-3,-6.897661E-3,1.0183317E-2,-9.717533E-3],"categories":[],"categories_nodes":[],"categories_segments":[],"categories_sizes":[],"default_left":[0,0,0,0,0,0,0],"id":33,"left_children":[1,3,5,-1,-1,-1,-1],"loss_changes":[8.171208E0,2.7556543E0,5.971319E0,0E0,0E0,0E0,0E0],"parents":[2147483647,0,0,1,1,2,2],"right_children":[2,4,6,-1,-1,-1,-1],"split_conditions":[3E0,5.562E4,5.422E3,2.33605E-3,-6.897661E-3,1.0183317E-2,-9.717533E-3],"split_indices":[3,5,5,0,0,0,0],"split_type":[0,0,0,0,0,0,0],"sum_hessian":[5.303347E2,4.1074783E2,1.1958685E2,3.838745E2,2.687333E1,1.0949763E1,1.08637085E2],"tree_param":{"num_deleted":"0","num_feature":"6","num_nodes":"7","size_leaf_vector":"1"}},{"base_weights":[2.5928724E-3,-7.056609E-1,1.0316648E0,-2.3450742E-2,4.0376846E-2,7.544604E-3,4.120717E-2],"categories":[],"categories_nodes":[],"categories_segments":[],"categories_sizes":[],"default_left":[0,0,0,0,0,0,0],"id":34,"left_children":[1,3,5,-1,-1,-1,-1],"loss_changes":[3.7952432E2,4.88248E1,5.2894165E1,0E0,0E0,0E0,0E0],"parents":[2147483647,0,0,1,1,2,2],"right_children":[2,4,6,-1,-1,-1,-1],"split_conditions":[3.8913034E2,8.795715E-1,6.1564636E-1,-2.3450742E-2,4.0376846E-2,7.544604E-3,4.120717E-2],"split_indices":[0,1,1,0,0,0,0],"split_type":[0,0,0,0,0,0,0],"sum_hessian":[5.158286E2,3.0476242E2,2.1106621E2,2.960053E2,8.757113E0,6.715345E1,1.4391275E2],"tree_param":{"num_deleted":"0","num_feature":"6","num_nodes":"7","size_leaf_vector":"1"}},{"base_weights":[1.0174908E-2,-6.041994E-1,1.1819925E0,-2.4559902E-2,2.4603635E-2,1.3601168E-2,3.844022E-2],"categories":[],"categories_nodes":[],"categories_segments":[],"categories_sizes":[],"default_left":[0,0,0,0,0,0,0],"id":35,"left_children":[1,3,5,-1,-1,-1,-1],"loss_changes":[3.8441544E2,1.0768733E2,8.703918E0,0E0,0E0,0E0,0E0],"parents":[2147483647,0,0,1,1,2,2],"right_children":[2,4,6,-1,-1,-1,-1],"split_conditions":[4.1540527E2,7.4310684E-1,4.9786946E-1,-2.4559902E-2,2.4603635E-2,1.3601168E-2,3.844022E-2],"split_indices":[0,1,1,0,0,0,0],"split_type":[0,0,0,0,0,0,0],"sum_hessian":[5.283696E2,3.4614874E2,1.822209E2,3.0280862E2,4.334013E1,2.5615402E1,1.566055E2],"tree_param":{"num_deleted":"0","num_feature":"6","num_nodes":"7","size_leaf_vector":"1"}},{"base_weights":[-0E0,-5.734222E-1,1.2249483E0,-2.420113E-2,-0E0,3.7063275E-2,-0E0],"categories":[],"categories_nodes":[],"categories_segments":[],"categories_sizes":[],"default_left":[0,0,0,0,0,0,0],"id":36,"left_children":[1,3,5,-1,-1,-1,-1],"loss_changes":[3.6505194E2,4.6395264E1,2.6264648E0,0E0,0E0,0E0,0E0],"parents":[2147483647,0,0,1,1,2,2],"right_children":[2,4,6,-1,-1,-1,-1],"split_conditions":[4.3139764E2,3.5330695E2,5.9769E4,-2.420113E-2,-0E0,3.7063275E-2,-0E0],"split_indices":[0,0,5,0,0,0,0],"split_type":[0,0,0,0,0,0,0],"sum_hessian":[5.1587695E2,3.5220996E2,1.6366702E2,2.4826295E2,1.03947E2,1.6258534E2,1.0816896E0],"tree_param":{"num_deleted":"0","num_feature":"6","num_nodes":"7","size_leaf_vector":"1"}},{"base_weights":[6.164119E-3,-4.5872885E-1,1.0276551E0,-1.6567828E-2,-2.3295924E-4,1.8819854E-2,3.9669476E-2],"categories":[],"categories_nodes":[],"categories_segments":[],"categories_sizes":[],"default_left":[0,0,0,0,0,0,0],"id":37,"left_children":[1,3,5,-1,-1,-1,-1],"loss_changes":[2.4676791E2,1.3808777E1,1.3683212E1,0E0,0E0,0E0,0E0],"parents":[2147483647,0,0,1,1,2,2],"right_children":[2,4,6,-1,-1,-1,-1],"split_conditions":[6.946822E-1,6.119959E-1,8.33667E-1,-1.6567828E-2,-2.3295924E-4,1.8819854E-2,3.9669476E-2],"split_indices":[1,1,1,0,0,0,0],"split_type":[0,0,0,0,0,0,0],"sum_hessian":[5.132569E2,3.5213837E2,1.6111853E2,2.876037E2,6.453465E1,7.384204E1,8.727649E1],"tree_param":{"num_deleted":"0","num_feature":"6","num_nodes":"7","size_leaf_vector":"1"}},{"base_weights":[6.5089427E-3,-4.481848E-1,1.0218136E0,-2.0177735E-2,-5.591162E-3,1.8241743E-2,3.9190304E-2],"categories":[],"categories_nodes":[],"categories_segments":[],"categories_sizes":[],"default_left":[0,0,0,0,0,0,0],"id":38,"left_children":[1,3,5,-1,-1,-1,-1],"loss_changes":[2.3729964E2,1.871045E1,1.3369583E1,0E0,0E0,0E0,0E0],"parents":[2147483647,0,0,1,1,2,2],"right_children":[2,4,6,-1,-1,-1,-1],"split_conditions":[6.9992703E-1,5.057862E-1,8.272289E-1,-2.0177735E-2,-5.591162E-3,1.8241743E-2,3.9190304E-2],"split_indices":[1,1,1,0,0,0,0],"split_type":[0,0,0,0,0,0,0],"sum_hessian":[5.075529E2,3.4996982E2,1.5758308E2,1.8264398E2,1.6732584E2,6.9630936E1,8.795215E1],"tree_param":{"num_deleted":"0","num_feature":"6","num_nodes":"7","size_leaf_vector":"1"}},{"base_weights":[1.2878167E-2,1.1481626E-1,-2.3792331E-1,6.5169875E-3,-7.2505726E-3,-0E0,-7.995763E-3],"categories":[],"categories_nodes":[],"categories_segments":[],"categories_sizes":[],"default_left":[0,0,0,0,0,0,0],"id":39,"left_children":[1,3,5,-1,-1,-1,-1],"loss_changes":[1.2407478E1,1.3105594E1,9.7004557E-1,0E0,0E0,0E0,0E0],"parents":[2147483647,0,0,1,1,2,2],"right_children":[2,4,6,-1,-1,-1,-1],"split_conditions":[2E0,3E0,7.103E3,6.5169875E-3,-7.2505726E-3,-0E0,-7.995763E-3],"split_indices":[2,3,4,0,0,0,0],"split_type":[0,0,0,0,0,0,0],"sum_hessian":[4.9080087E2,3.5540543E2,1.3539545E2,2.8105478E2,7.435065E1,1.4251103E1,1.2114435E2],"tree_param":{"num_deleted":"0","num_feature":"6","num_nodes":"7","size_leaf_vector":"1"}},{"base_weights":[-0E0,-6.59388E-1,9.5227337E-1,-2.6473703E-2,-1.2124662E-2,1.059208E-2,3.8162243E-2],"categories":[],"categories_nodes":[],"categories_segments":[],"categories_sizes":[],"default_left":[0,0,0,0,0,0,0],"id":40,"left_children":[1,3,5,-1,-1,-1,-1],"loss_changes":[3.209884E2,1.3957306E1,3.5853943E1,0E0,0E0,0E0,0E0],"parents":[2147483647,0,0,1,1,2,2],"right_children":[2,4,6,-1,-1,-1,-1],"split_conditions":[3.8913034E2,3.0296494E2,4.533427E2,-2.6473703E-2,-1.2124662E-2,1.059208E-2,3.8162243E-2],"split_indices":[0,0,0,0,0,0,0],"split_type":[0,0,0,0,0,0,0],"sum_hessian":[5.0762448E2,3.0087192E2,2.0675253E2,1.53748E2,1.4712393E2,7.558771E1,1.3116483E2],"tree_param":{"num_deleted":"0","num_feature":"6","num_nodes":"7","size_leaf_vector":"1"}},{"base_weights":[9.85543E-3,1.1701464E-1,-2.6695597E-1,6.7914836E-3,-7.5794165E-3,-7.276263E-4,-1.1302576E-2],"categories":[],"categories_nodes":[],"categories_segments":[],"categories_sizes":[],"default_left":[0,0,0,0,0,0,0],"id":41,"left_children":[1,3,5,-1,-1,-1,-1],"loss_changes":[1.4757166E1,1.5062035E1,2.816512E0,0E0,0E0,0E0,0E0],"parents":[2147483647,0,0,1,1,2,2],"right_children":[2,4,6,-1,-1,-1,-1],"split_conditions":[2E0,3E0,2.0591E4,6.7914836E-3,-7.5794165E-3,-7.276263E-4,-1.1302576E-2],"split_indices":[2,3,5,0,0,0,0],"split_type":[0,0,0,0,0,0,0],"sum_hessian":[5.034994E2,3.6902295E2,1.3447646E2,2.89544E2,7.947895E1,4.832124E1,8.615521E1],"tree_param":{"num_deleted":"0","num_feature":"6","num_nodes":"7","size_leaf_vector":"1"}},{"base_weights":[1.4959572E-2,9.602145E-2,-2.578541E-1,6.5184124E-3,-6.65622E-3,-8.842114E-3,-0E0],"categories":[],"categories_nodes":[],"categories_segments":[],"categories_sizes":[],"default_left":[0,0,0,0,0,0,0],"id":42,"left_children":[1,3,5,-1,-1,-1,-1],"loss_changes":[1.0671245E1,1.5069557E1,1.4178333E0,0E0,0E0,0E0,0E0],"parents":[2147483647,0,0,1,1,2,2],"right_children":[2,4,6,-1,-1,-1,-1],"split_conditions":[3E0,2E0,5.5491E4,6.5184124E-3,-6.65622E-3,-8.842114E-3,-0E0],"split_indices":[3,2,4,0,0,0,0],"split_type":[0,0,0,0,0,0,0],"sum_hessian":[4.9293533E2,3.8667004E2,1.0626527E2,2.8491547E2,1.0175459E2,9.718562E1,9.079642E0],"tree_param":{"num_deleted":"0","num_feature":"6","num_nodes":"7","size_leaf_vector":"1"}},{"base_weights":[-0E0,-6.902938E-1,9.069538E-1,-2.2856032E-2,2.5434354E-2,-0E0,3.5544984E-2],"categories":[],"categories_nodes":[],"categories_segments":[],"categories_sizes":[],"default_left":[0,0,0,0,0,0,0],"id":43,"left_children":[1,3,5,-1,-1,-1,-1],"loss_changes":[3.0819092E2,3.1975418E1,5.2071594E1,0E0,0E0,0E0,0E0],"parents":[2147483647,0,0,1,1,2,2],"right_children":[2,4,6,-1,-1,-1,-1],"split_conditions":[3.8435367E2,8.661244E-1,5.439966E-1,-2.2856032E-2,2.5434354E-2,-0E0,3.5544984E-2],"split_indices":[0,1,1,0,0,0,0],"split_type":[0,0,0,0,0,0,0],"sum_hessian":[4.8858612E2,2.7827905E2,2.1030705E2,2.681124E2,1.0166666E1,5.0814423E1,1.5949263E2],"tree_param":{"num_deleted":"0","num_feature":"6","num_nodes":"7","size_leaf_vector":"1"}},{"base_weights":[-1.1089535E-2,7.575659E-2,-2.514355E-1,5.799933E-3,-1.0363874E-2,-0E0,-7.787185E-3],"categories":[],"categories_nodes":[],"categories_segments":[],"categories_sizes":[],"default_left":[0,0,0,0,0,0,0],"id":44,"left_children":[1,3,5,-1,-1,-1,-1],"loss_changes":[1.0651835E1,1.7488823E1,4.9395847E-1,0E0,0E0,0E0,0E0],"parents":[2147483647,0,0,1,1,2,2],"right_children":[2,4,6,-1,-1,-1,-1],"split_conditions":[2E0,3E0,1.496E3,5.799933E-3,-1.0363874E-2,-0E0,-7.787185E-3],"split_indices":[2,3,5,0,0,0,0],"split_type":[0,0,0,0,0,0,0],"sum_hessian":[4.896555E2,3.5458038E2,1.3507509E2,2.8176245E2,7.281795E1,1.1284417E0,1.3394666E2],"tree_param":{"num_deleted":"0","num_feature":"6","num_nodes":"7","size_leaf_vector":"1"}},{"base_weights":[-2.6225792E-2,-5.957026E-1,1.0461236E0,-2.5284966E-2,-5.6718704E-3,1.2717758E-2,3.6903698E-2],"categories":[],"categories_nodes":[],"categories_segments":[],"categories_sizes":[],"default_left":[0,0,0,0,0,0,0],"id":45,"left_children":[1,3,5,-1,-1,-1,-1],"loss_changes":[2.999905E2,3.0074142E1,1.5077057E1,0E0,0E0,0E0,0E0],"parents":[2147483647,0,0,1,1,2,2],"right_children":[2,4,6,-1,-1,-1,-1],"split_conditions":[4.1540527E2,3.307466E2,4.533427E2,-2.5284966E-2,-5.6718704E-3,1.2717758E-2,3.6903698E-2],"split_indices":[0,0,0,0,0,0,0],"split_type":[0,0,0,0,0,0,0],"sum_hessian":[4.886758E2,3.209746E2,1.6770122E2,1.9525038E2,1.2572423E2,4.2263577E1,1.2543764E2],"tree_param":{"num_deleted":"0","num_feature":"6","num_nodes":"7","size_leaf_vector":"1"}},{"base_weights":[1.36184255E-2,9.598537E-2,-1.9793421E-1,5.239158E-4,8.695344E-3,-0E0,-9.585744E-3],"categories":[],"categories_nodes":[],"categories_segments":[],"categories_sizes":[],"default_left":[0,0,0,0,0,0,0],"id":46,"left_children":[1,3,5,-1,-1,-1,-1],"loss_changes":[8.236433E0,4.782504E0,3.3391085E0,0E0,0E0,0E0,0E0],"parents":[2147483647,0,0,1,1,2,2],"right_children":[2,4,6,-1,-1,-1,-1],"split_conditions":[2E0,4.544E4,2.0153E4,5.239158E-4,8.695344E-3,-0E0,-9.585744E-3],"split_indices":[2,4,5,0,0,0,0],"split_type":[0,0,0,0,0,0,0],"sum_hessian":[4.8020145E2,3.5322253E2,1.2697891E2,2.602905E2,9.2932045E1,4.6779507E1,8.019941E1],"tree_param":{"num_deleted":"0","num_feature":"6","num_nodes":"7","size_leaf_vector":"1"}},{"base_weights":[1.6834969E-2,-3.8808587E-1,9.949464E-1,-1.9188205E-2,-3.83242E-3,1.8234577E-2,3.7017517E-2],"categories":[],"categories_nodes":[],"categories_segments":[],"categories_sizes":[],"default_left":[0,0,0,0,0,0,0],"id":47,"left_children":[1,3,5,-1,-1,-1,-1],"loss_changes":[1.9398784E2,2.0751362E1,8.1328125E0,0E0,0E0,0E0,0E0],"parents":[2147483647,0,0,1,1,2,2],"right_children":[2,4,6,-1,-1,-1,-1],"split_conditions":[7.2105896E-1,5.078742E-1,8.33667E-1,-1.9188205E-2,-3.83242E-3,1.8234577E-2,3.7017517E-2],"split_indices":[1,1,1,0,0,0,0],"split_type":[0,0,0,0,0,0,0],"sum_hessian":[4.8278256E2,3.408418E2,1.4194078E2,1.6796742E2,1.7287436E2,6.007572E1,8.186505E1],"tree_param":{"num_deleted":"0","num_feature":"6","num_nodes":"7","size_leaf_vector":"1"}},{"base_weights":[4.0456418E-2,-6.442857E-1,9.0897447E-1,-2.3080392E-2,-6.0875216E-3,1.0931398E-2,3.6169723E-2],"categories":[],"categories_nodes":[],"categories_segments":[],"categories_sizes":[],"default_left":[0,0,0,0,0,0,0],"id":48,"left_children":[1,3,5,-1,-1,-1,-1],"loss_changes":[2.9703806E2,1.3064201E1,3.1695526E1,0E0,0E0,0E0,0E0],"parents":[2147483647,0,0,1,1,2,2],"right_children":[2,4,6,-1,-1,-1,-1],"split_conditions":[3.829138E2,3.4169647E2,4.4636755E2,-2.3080392E-2,-6.0875216E-3,1.0931398E-2,3.6169723E-2],"split_indices":[0,0,0,0,0,0,0],"split_type":[0,0,0,0,0,0,0],"sum_hessian":[4.9460672E2,2.7556448E2,2.1904224E2,2.100342E2,6.553029E1,8.119584E1,1.3784639E2],"tree_param":{"num_deleted":"0","num_feature":"6","num_nodes":"7","size_leaf_vector":"1"}},{"base_weights":[-1.4435558E-2,-6.5149754E-1,8.410973E-1,-2.3284487E-2,4.442127E-3,3.4993943E-3,3.513106E-2],"categories":[],"categories_nodes":[],"categories_segments":[],"categories_sizes":[],"default_left":[0,0,0,0,0,0,0],"id":49,"left_children":[1,3,5,-1,-1,-1,-1],"loss_changes":[2.6058707E2,2.897068E1,4.5682693E1,0E0,0E0,0E0,0E0],"parents":[2147483647,0,0,1,1,2,2],"right_children":[2,4,6,-1,-1,-1,-1],"split_conditions":[3.829138E2,7.241924E-1,5.984483E-1,-2.3284487E-2,4.442127E-3,3.4993943E-3,3.513106E-2],"split_indices":[0,1,1,0,0,0,0],"split_type":[0,0,0,0,0,0,0],"sum_hessian":[4.7480228E2,2.7376285E2,2.0103943E2,2.3905441E2,3.4708447E1,6.565293E1,1.353865E2],"tree_param":{"num_deleted":"0","num_feature":"6","num_nodes":"7","size_leaf_vector":"1"}},{"base_weights":[2.8514366E-3,-3.9692748E-1,1.0006937E0,-1.6533392E-2,-4.5682298E-4,1.9957282E-2,3.754535E-2],"categories":[],"categories_nodes":[],"categories_segments":[],"categories_sizes":[],"default_left":[0,0,0,0,0,0,0],"id":50,"left_children":[1,3,5,-1,-1,-1,-1],"loss_changes":[1.8944145E2,1.85938E1,5.9778595E0,0E0,0E0,0E0,0E0],"parents":[2147483647,0,0,1,1,2,2],"right_children":[2,4,6,-1,-1,-1,-1],"split_conditions":[7.2105896E-1,5.8543026E-1,8.520655E-1,-1.6533392E-2,-4.5682298E-4,1.9957282E-2,3.754535E-2],"split_indices":[1,1,1,0,0,0,0],"split_type":[0,0,0,0,0,0,0],"sum_hessian":[4.6787177E2,3.334695E2,1.3440225E2,2.3315889E2,1.0031062E2,6.403654E1,7.0365715E1],"tree_param":{"num_deleted":"0","num_feature":"6","num_nodes":"7","size_leaf_vector":"1"}},{"base_weights":[5.734747E-3,-5.483175E-1,9.5944655E-1,-2.5362305E-2,-7.4708955E-3,7.109247E-3,3.4054395E-2],"categories":[],"categories_nodes":[],"categories_segments":[],"categories_sizes":[],"default_left":[0,0,0,0,0,0,0],"id":51,"left_children":[1,3,5,-1,-1,-1,-1],"loss_changes":[2.5240793E2,2.4051552E1,1.9094528E1,0E0,0E0,0E0,0E0],"parents":[2147483647,0,0,1,1,2,2],"right_children":[2,4,6,-1,-1,-1,-1],"split_conditions":[4.04906E2,3.072992E2,4.370836E2,-2.5362305E-2,-7.4708955E-3,7.109247E-3,3.4054395E-2],"split_indices":[0,0,0,0,0,0,0],"split_type":[0,0,0,0,0,0,0],"sum_hessian":[4.7213058E2,2.9784985E2,1.7428073E2,1.4428802E2,1.5356183E2,3.72384E1,1.3704233E2],"tree_param":{"num_deleted":"0","num_feature":"6","num_nodes":"7","size_leaf_vector":"1"}},{"base_weights":[-4.232796E-3,-5.034808E-1,1.0167116E0,-2.0139325E-2,-0E0,1.6192436E-2,3.576002E-2],"categories":[],"categories_nodes":[],"categories_segments":[],"categories_sizes":[],"default_left":[0,0,0,0,0,0,0],"id":52,"left_children":[1,3,5,-1,-1,-1,-1],"loss_changes":[2.3244658E2,2.673555E1,7.7169495E0,0E0,0E0,0E0,0E0],"parents":[2147483647,0,0,1,1,2,2],"right_children":[2,4,6,-1,-1,-1,-1],"split_conditions":[4.20385E2,3.6541507E2,4.6894144E2,-2.0139325E-2,-0E0,1.6192436E-2,3.576002E-2],"split_indices":[0,0,0,0,0,0,0],"split_type":[0,0,0,0,0,0,0],"sum_hessian":[4.5404715E2,3.0692944E2,1.4711769E2,2.3109674E2,7.583271E1,4.4795826E1,1.0232187E2],"tree_param":{"num_deleted":"0","num_feature":"6","num_nodes":"7","size_leaf_vector":"1"}},{"base_weights":[1.2089363E-2,-3.7556037E-1,1.0038643E0,-1.7903356E-2,-3.3498188E-3,2.110519E-2,3.655473E-2],"categories":[],"categories_nodes":[],"categories_segments":[],"categories_sizes":[],"default_left":[0,0,0,0,0,0,0],"id":53,"left_children":[1,3,5,-1,-1,-1,-1],"loss_changes":[1.7869315E2,1.7739445E1,2.8955383E0,0E0,0E0,0E0,0E0],"parents":[2147483647,0,0,1,1,2,2],"right_children":[2,4,6,-1,-1,-1,-1],"split_conditions":[7.241924E-1,5.22635E-1,8.661244E-1,-1.7903356E-2,-3.3498188E-3,2.110519E-2,3.655473E-2],"split_indices":[1,1,1,0,0,0,0],"split_type":[0,0,0,0,0,0,0],"sum_hessian":[4.5755862E2,3.284178E2,1.2914082E2,1.7316124E2,1.5525656E2,6.1270443E1,6.787039E1],"tree_param":{"num_deleted":"0","num_feature":"6","num_nodes":"7","size_leaf_vector":"1"}},{"base_weights":[-1.1605876E-2,-4.353103E-1,1.1103374E0,-2.3198053E-2,-3.1093333E-3,6.504402E-3,3.4679737E-2],"categories":[],"categories_nodes":[],"categories_segments":[],"categories_sizes":[],"default_left":[0,0,0,0,0,0,0],"id":54,"left_children":[1,3,5,-1,-1,-1,-1],"loss_changes":[2.1647392E2,3.5508224E1,1.8245697E0,0E0,0E0,0E0,0E0],"parents":[2147483647,0,0,1,1,2,2],"right_children":[2,4,6,-1,-1,-1,-1],"split_conditions":[4.4636755E2,3.1942688E2,4.533427E2,-2.3198053E-2,-3.1093333E-3,6.504402E-3,3.4679737E-2],"split_indices":[0,0,0,0,0,0,0],"split_type":[0,0,0,0,0,0,0],"sum_hessian":[4.541841E2,3.318622E2,1.2232189E2,1.6006618E2,1.7179604E2,8.634584E0,1.1368731E2],"tree_param":{"num_deleted":"0","num_feature":"6","num_nodes":"7","size_leaf_vector":"1"}},{"base_weights":[1.9580195E-2,-6.0406804E-1,7.777665E-1,-2.2358626E-2,5.266304E-3,-2.287132E-3,3.126189E-2],"categories":[],"categories_nodes":[],"categories_segments":[],"categories_sizes":[],"default_left":[0,0,0,0,0,0,0],"id":55,"left_children":[1,3,5,-1,-1,-1,-1],"loss_changes":[2.1224658E2,2.8316833E1,4.8062973E1,0E0,0E0,0E0,0E0],"parents":[2147483647,0,0,1,1,2,2],"right_children":[2,4,6,-1,-1,-1,-1],"split_conditions":[3.7315982E2,7.241924E-1,5.2033657E-1,-2.2358626E-2,5.266304E-3,-2.287132E-3,3.126189E-2],"split_indices":[0,1,1,0,0,0,0],"split_type":[0,0,0,0,0,0,0],"sum_hessian":[4.4415268E2,2.4247383E2,2.0167885E2,2.0753432E2,3.493951E1,4.621222E1,1.5546663E2],"tree_param":{"num_deleted":"0","num_feature":"6","num_nodes":"7","size_leaf_vector":"1"}},{"base_weights":[2.60282E-2,-3.313426E-1,9.1943413E-1,-1.7412962E-2,-2.6682434E-3,1.5051489E-2,3.475469E-2],"categories":[],"categories_nodes":[],"categories_segments":[],"categories_sizes":[],"default_left":[0,0,0,0,0,0,0],"id":56,"left_children":[1,3,5,-1,-1,-1,-1],"loss_changes":[1.4308417E2,1.7636864E1,8.356438E0,0E0,0E0,0E0,0E0],"parents":[2147483647,0,0,1,1,2,2],"right_children":[2,4,6,-1,-1,-1,-1],"split_conditions":[7.241924E-1,5.057862E-1,8.272289E-1,-1.7412962E-2,-2.6682434E-3,1.5051489E-2,3.475469E-2],"split_indices":[1,1,1,0,0,0,0],"split_type":[0,0,0,0,0,0,0],"sum_hessian":[4.4055804E2,3.1398193E2,1.2657611E2,1.494098E2,1.6457213E2,5.1372772E1,7.520334E1],"tree_param":{"num_deleted":"0","num_feature":"6","num_nodes":"7","size_leaf_vector":"1"}},{"base_weights":[1.9614875E-2,-3.6505753E-1,8.7190026E-1,-1.769257E-2,-4.039324E-3,1.8201835E-2,3.5233147E-2],"categories":[],"categories_nodes":[],"categories_segments":[],"categories_sizes":[],"default_left":[0,0,0,0,0,0,0],"id":57,"left_children":[1,3,5,-1,-1,-1,-1],"loss_changes":[1.4771921E2,1.4274918E1,6.305023E0,0E0,0E0,0E0,0E0],"parents":[2147483647,0,0,1,1,2,2],"right_children":[2,4,6,-1,-1,-1,-1],"split_conditions":[6.9992703E-1,5.018992E-1,8.795715E-1,-1.769257E-2,-4.039324E-3,1.8201835E-2,3.5233147E-2],"split_indices":[1,1,1,0,0,0,0],"split_type":[0,0,0,0,0,0,0],"sum_hessian":[4.4353494E2,3.047742E2,1.3876076E2,1.4832822E2,1.5644598E2,8.0673065E1,5.80877E1],"tree_param":{"num_deleted":"0","num_feature":"6","num_nodes":"7","size_leaf_vector":"1"}},{"base_weights":[-1.2212704E-3,-6.1052203E-1,8.067237E-1,-1.992826E-2,3.813858E-2,8.241419E-3,3.361193E-2],"categories":[],"categories_nodes":[],"categories_segments":[],"categories_sizes":[],"default_left":[0,0,0,0,0,0,0],"id":58,"left_children":[1,3,5,-1,-1,-1,-1],"loss_changes":[2.1240073E2,2.5543976E1,2.7370872E1,0E0,0E0,0E0,0E0],"parents":[2147483647,0,0,1,1,2,2],"right_children":[2,4,6,-1,-1,-1,-1],"split_conditions":[3.829138E2,9.4273025E-1,6.321732E-1,-1.992826E-2,3.813858E-2,8.241419E-3,3.361193E-2],"split_indices":[0,1,1,0,0,0,0],"split_type":[0,0,0,0,0,0,0],"sum_hessian":[4.2825812E2,2.4583163E2,1.8242648E2,2.4129588E2,4.5357375E0,7.142058E1,1.110059E2],"tree_param":{"num_deleted":"0","num_feature":"6","num_nodes":"7","size_leaf_vector":"1"}},{"base_weights":[-1.0244337E-2,-3.6468259E-1,8.6931235E-1,-1.6900389E-2,-1.6084939E-3,1.3551452E-2,3.3474833E-2],"categories":[],"categories_nodes":[],"categories_segments":[],"categories_sizes":[],"default_left":[0,0,0,0,0,0,0],"id":59,"left_children":[1,3,5,-1,-1,-1,-1],"loss_changes":[1.3569582E2,1.8118622E1,8.656799E0,0E0,0E0,0E0,0E0],"parents":[2147483647,0,0,1,1,2,2],"right_children":[2,4,6,-1,-1,-1,-1],"split_conditions":[7.241924E-1,5.454049E-1,8.272289E-1,-1.6900389E-2,-1.6084939E-3,1.3551452E-2,3.3474833E-2],"split_indices":[1,1,1,0,0,0,0],"split_type":[0,0,0,0,0,0,0],"sum_hessian":[4.344769E2,3.1213806E2,1.2233882E2,1.855709E2,1.2656716E2,5.052587E1,7.181295E1],"tree_param":{"num_deleted":"0","num_feature":"6","num_nodes":"7","size_leaf_vector":"1"}}]},"name":"gbtree"},"learner_model_param":{"base_score":"3.332667E-1","boost_from_average":"1","num_class":"0","num_feature":"6","num_target":"1"},"objective":{"name":"binary:logistic","reg_loss_param":{"scale_pos_weight":"1"}}},"version":[3,0,0]}